Language model created by QuickLM on Thu Apr 18 10:48:03 EDT 2013
Copyright (c) 1996-2000
Carnegie Mellon University and Alexander I. Rudnicky

This model based on a corpus of 1 sentences and 3 words
The (fixed) discount mass is 0.5

\data\
ngram 1=3
ngram 2=2
ngram 3=1

\1-grams:
-0.7782 </s> -0.3010
-0.7782 <s> -0.2218
-0.7782 西西 -0.2218

\2-grams:
-0.3010 <s> 西西 0.0000
-0.3010 西西 </s> -0.3010

\3-grams:
-0.3010 <s> 西西 </s>

\end\
